digraph Tree {
node [shape=box] ;
0 [label="X[32] <= 1.5\ngini = 0.4328\nsamples = 300\nvalue = [95, 205]"] ;
1 [label="X[4] <= 16.5\ngini = 0.4014\nsamples = 277\nvalue = [77, 200]"] ;
0 -> 1 [labeldistance=2.5, labelangle=45, headlabel="True"] ;
2 [label="X[18] <= 0.5\ngini = 0.3125\nsamples = 129\nvalue = [25, 104]"] ;
1 -> 2 ;
3 [label="X[33] <= 0.5\ngini = 0.2832\nsamples = 123\nvalue = [21, 102]"] ;
2 -> 3 ;
4 [label="X[39] <= 0.5\ngini = 0.2248\nsamples = 93\nvalue = [12, 81]"] ;
3 -> 4 ;
5 [label="X[47] <= 1.0\ngini = 0.4592\nsamples = 14\nvalue = [5, 9]"] ;
4 -> 5 ;
6 [label="X[16] <= 0.5\ngini = 0.375\nsamples = 4\nvalue = [3, 1]"] ;
5 -> 6 ;
7 [label="gini = 0.0\nsamples = 3\nvalue = [3, 0]"] ;
6 -> 7 ;
8 [label="gini = 0.0\nsamples = 1\nvalue = [0, 1]"] ;
6 -> 8 ;
9 [label="X[42] <= 2.0\ngini = 0.32\nsamples = 10\nvalue = [2, 8]"] ;
5 -> 9 ;
10 [label="gini = 0.0\nsamples = 1\nvalue = [1, 0]"] ;
9 -> 10 ;
11 [label="X[46] <= 3.0\ngini = 0.1975\nsamples = 9\nvalue = [1, 8]"] ;
9 -> 11 ;
12 [label="X[20] <= 0.5\ngini = 0.5\nsamples = 2\nvalue = [1, 1]"] ;
11 -> 12 ;
13 [label="gini = 0.0\nsamples = 1\nvalue = [0, 1]"] ;
12 -> 13 ;
14 [label="gini = 0.0\nsamples = 1\nvalue = [1, 0]"] ;
12 -> 14 ;
15 [label="gini = 0.0\nsamples = 7\nvalue = [0, 7]"] ;
11 -> 15 ;
16 [label="X[17] <= 0.5\ngini = 0.1615\nsamples = 79\nvalue = [7, 72]"] ;
4 -> 16 ;
17 [label="X[13] <= 0.5\ngini = 0.0655\nsamples = 59\nvalue = [2, 57]"] ;
16 -> 17 ;
18 [label="X[43] <= 4.5\ngini = 0.0357\nsamples = 55\nvalue = [1, 54]"] ;
17 -> 18 ;
19 [label="gini = 0.0\nsamples = 48\nvalue = [0, 48]"] ;
18 -> 19 ;
20 [label="X[7] <= 0.5\ngini = 0.2449\nsamples = 7\nvalue = [1, 6]"] ;
18 -> 20 ;
21 [label="X[30] <= 1.5\ngini = 0.5\nsamples = 2\nvalue = [1, 1]"] ;
20 -> 21 ;
22 [label="gini = 0.0\nsamples = 1\nvalue = [0, 1]"] ;
21 -> 22 ;
23 [label="gini = 0.0\nsamples = 1\nvalue = [1, 0]"] ;
21 -> 23 ;
24 [label="gini = 0.0\nsamples = 5\nvalue = [0, 5]"] ;
20 -> 24 ;
25 [label="X[47] <= 11.0\ngini = 0.375\nsamples = 4\nvalue = [1, 3]"] ;
17 -> 25 ;
26 [label="gini = 0.0\nsamples = 3\nvalue = [0, 3]"] ;
25 -> 26 ;
27 [label="gini = 0.0\nsamples = 1\nvalue = [1, 0]"] ;
25 -> 27 ;
28 [label="X[38] <= 0.5\ngini = 0.375\nsamples = 20\nvalue = [5, 15]"] ;
16 -> 28 ;
29 [label="gini = 0.0\nsamples = 1\nvalue = [1, 0]"] ;
28 -> 29 ;
30 [label="X[46] <= 3.5\ngini = 0.3324\nsamples = 19\nvalue = [4, 15]"] ;
28 -> 30 ;
31 [label="X[43] <= 2.5\ngini = 0.48\nsamples = 10\nvalue = [4, 6]"] ;
30 -> 31 ;
32 [label="gini = 0.0\nsamples = 3\nvalue = [0, 3]"] ;
31 -> 32 ;
33 [label="X[30] <= 1.5\ngini = 0.4898\nsamples = 7\nvalue = [4, 3]"] ;
31 -> 33 ;
34 [label="gini = 0.0\nsamples = 4\nvalue = [4, 0]"] ;
33 -> 34 ;
35 [label="gini = 0.0\nsamples = 3\nvalue = [0, 3]"] ;
33 -> 35 ;
36 [label="gini = 0.0\nsamples = 9\nvalue = [0, 9]"] ;
30 -> 36 ;
37 [label="X[12] <= 2.5\ngini = 0.42\nsamples = 30\nvalue = [9, 21]"] ;
3 -> 37 ;
38 [label="X[8] <= 0.5\ngini = 0.4959\nsamples = 11\nvalue = [6, 5]"] ;
37 -> 38 ;
39 [label="X[47] <= 7.0\ngini = 0.4688\nsamples = 8\nvalue = [3, 5]"] ;
38 -> 39 ;
40 [label="X[11] <= 2.5\ngini = 0.2778\nsamples = 6\nvalue = [1, 5]"] ;
39 -> 40 ;
41 [label="gini = 0.0\nsamples = 5\nvalue = [0, 5]"] ;
40 -> 41 ;
42 [label="gini = 0.0\nsamples = 1\nvalue = [1, 0]"] ;
40 -> 42 ;
43 [label="gini = 0.0\nsamples = 2\nvalue = [2, 0]"] ;
39 -> 43 ;
44 [label="gini = 0.0\nsamples = 3\nvalue = [3, 0]"] ;
38 -> 44 ;
45 [label="X[25] <= 0.5\ngini = 0.2659\nsamples = 19\nvalue = [3, 16]"] ;
37 -> 45 ;
46 [label="X[19] <= 0.5\ngini = 0.1172\nsamples = 16\nvalue = [1, 15]"] ;
45 -> 46 ;
47 [label="gini = 0.0\nsamples = 13\nvalue = [0, 13]"] ;
46 -> 47 ;
48 [label="X[11] <= 2.5\ngini = 0.4444\nsamples = 3\nvalue = [1, 2]"] ;
46 -> 48 ;
49 [label="gini = 0.0\nsamples = 1\nvalue = [1, 0]"] ;
48 -> 49 ;
50 [label="gini = 0.0\nsamples = 2\nvalue = [0, 2]"] ;
48 -> 50 ;
51 [label="X[11] <= 3.0\ngini = 0.4444\nsamples = 3\nvalue = [2, 1]"] ;
45 -> 51 ;
52 [label="gini = 0.0\nsamples = 1\nvalue = [0, 1]"] ;
51 -> 52 ;
53 [label="gini = 0.0\nsamples = 2\nvalue = [2, 0]"] ;
51 -> 53 ;
54 [label="X[42] <= 3.5\ngini = 0.4444\nsamples = 6\nvalue = [4, 2]"] ;
2 -> 54 ;
55 [label="gini = 0.0\nsamples = 4\nvalue = [4, 0]"] ;
54 -> 55 ;
56 [label="gini = 0.0\nsamples = 2\nvalue = [0, 2]"] ;
54 -> 56 ;
57 [label="X[47] <= 0.5\ngini = 0.4558\nsamples = 148\nvalue = [52, 96]"] ;
1 -> 57 ;
58 [label="X[12] <= 2.5\ngini = 0.4988\nsamples = 40\nvalue = [21, 19]"] ;
57 -> 58 ;
59 [label="X[40] <= 0.5\ngini = 0.3878\nsamples = 19\nvalue = [14, 5]"] ;
58 -> 59 ;
60 [label="X[43] <= 3.5\ngini = 0.5\nsamples = 10\nvalue = [5, 5]"] ;
59 -> 60 ;
61 [label="X[11] <= 1.5\ngini = 0.4082\nsamples = 7\nvalue = [2, 5]"] ;
60 -> 61 ;
62 [label="X[7] <= 0.5\ngini = 0.4444\nsamples = 3\nvalue = [2, 1]"] ;
61 -> 62 ;
63 [label="gini = 0.0\nsamples = 1\nvalue = [0, 1]"] ;
62 -> 63 ;
64 [label="gini = 0.0\nsamples = 2\nvalue = [2, 0]"] ;
62 -> 64 ;
65 [label="gini = 0.0\nsamples = 4\nvalue = [0, 4]"] ;
61 -> 65 ;
66 [label="gini = 0.0\nsamples = 3\nvalue = [3, 0]"] ;
60 -> 66 ;
67 [label="gini = 0.0\nsamples = 9\nvalue = [9, 0]"] ;
59 -> 67 ;
68 [label="X[41] <= 4.5\ngini = 0.4444\nsamples = 21\nvalue = [7, 14]"] ;
58 -> 68 ;
69 [label="X[29] <= 0.5\ngini = 0.2311\nsamples = 15\nvalue = [2, 13]"] ;
68 -> 69 ;
70 [label="X[32] <= 0.5\ngini = 0.1327\nsamples = 14\nvalue = [1, 13]"] ;
69 -> 70 ;
71 [label="gini = 0.0\nsamples = 12\nvalue = [0, 12]"] ;
70 -> 71 ;
72 [label="X[40] <= 0.5\ngini = 0.5\nsamples = 2\nvalue = [1, 1]"] ;
70 -> 72 ;
73 [label="gini = 0.0\nsamples = 1\nvalue = [1, 0]"] ;
72 -> 73 ;
74 [label="gini = 0.0\nsamples = 1\nvalue = [0, 1]"] ;
72 -> 74 ;
75 [label="gini = 0.0\nsamples = 1\nvalue = [1, 0]"] ;
69 -> 75 ;
76 [label="X[15] <= 0.5\ngini = 0.2778\nsamples = 6\nvalue = [5, 1]"] ;
68 -> 76 ;
77 [label="gini = 0.0\nsamples = 5\nvalue = [5, 0]"] ;
76 -> 77 ;
78 [label="gini = 0.0\nsamples = 1\nvalue = [0, 1]"] ;
76 -> 78 ;
79 [label="X[47] <= 13.5\ngini = 0.4093\nsamples = 108\nvalue = [31, 77]"] ;
57 -> 79 ;
80 [label="X[28] <= 0.5\ngini = 0.3501\nsamples = 84\nvalue = [19, 65]"] ;
79 -> 80 ;
81 [label="X[43] <= 2.5\ngini = 0.4717\nsamples = 21\nvalue = [8, 13]"] ;
80 -> 81 ;
82 [label="gini = 0.0\nsamples = 5\nvalue = [0, 5]"] ;
81 -> 82 ;
83 [label="X[44] <= 1.5\ngini = 0.5\nsamples = 16\nvalue = [8, 8]"] ;
81 -> 83 ;
84 [label="X[20] <= 0.5\ngini = 0.4444\nsamples = 12\nvalue = [4, 8]"] ;
83 -> 84 ;
85 [label="gini = 0.0\nsamples = 7\nvalue = [0, 7]"] ;
84 -> 85 ;
86 [label="X[3] <= 0.5\ngini = 0.32\nsamples = 5\nvalue = [4, 1]"] ;
84 -> 86 ;
87 [label="gini = 0.0\nsamples = 4\nvalue = [4, 0]"] ;
86 -> 87 ;
88 [label="gini = 0.0\nsamples = 1\nvalue = [0, 1]"] ;
86 -> 88 ;
89 [label="gini = 0.0\nsamples = 4\nvalue = [4, 0]"] ;
83 -> 89 ;
90 [label="X[35] <= 0.5\ngini = 0.2882\nsamples = 63\nvalue = [11, 52]"] ;
80 -> 90 ;
91 [label="X[41] <= 4.5\ngini = 0.4121\nsamples = 31\nvalue = [9, 22]"] ;
90 -> 91 ;
92 [label="X[47] <= 7.5\ngini = 0.4835\nsamples = 22\nvalue = [9, 13]"] ;
91 -> 92 ;
93 [label="X[47] <= 4.5\ngini = 0.4898\nsamples = 14\nvalue = [8, 6]"] ;
92 -> 93 ;
94 [label="X[43] <= 4.0\ngini = 0.48\nsamples = 10\nvalue = [4, 6]"] ;
93 -> 94 ;
95 [label="X[45] <= 1.5\ngini = 0.2778\nsamples = 6\nvalue = [1, 5]"] ;
94 -> 95 ;
96 [label="gini = 0.0\nsamples = 1\nvalue = [1, 0]"] ;
95 -> 96 ;
97 [label="gini = 0.0\nsamples = 5\nvalue = [0, 5]"] ;
95 -> 97 ;
98 [label="X[12] <= 2.5\ngini = 0.375\nsamples = 4\nvalue = [3, 1]"] ;
94 -> 98 ;
99 [label="gini = 0.0\nsamples = 3\nvalue = [3, 0]"] ;
98 -> 99 ;
100 [label="gini = 0.0\nsamples = 1\nvalue = [0, 1]"] ;
98 -> 100 ;
101 [label="gini = 0.0\nsamples = 4\nvalue = [4, 0]"] ;
93 -> 101 ;
102 [label="X[3] <= 0.5\ngini = 0.2188\nsamples = 8\nvalue = [1, 7]"] ;
92 -> 102 ;
103 [label="X[31] <= 2.5\ngini = 0.4444\nsamples = 3\nvalue = [1, 2]"] ;
102 -> 103 ;
104 [label="gini = 0.0\nsamples = 1\nvalue = [1, 0]"] ;
103 -> 104 ;
105 [label="gini = 0.0\nsamples = 2\nvalue = [0, 2]"] ;
103 -> 105 ;
106 [label="gini = 0.0\nsamples = 5\nvalue = [0, 5]"] ;
102 -> 106 ;
107 [label="gini = 0.0\nsamples = 9\nvalue = [0, 9]"] ;
91 -> 107 ;
108 [label="X[17] <= 0.5\ngini = 0.1172\nsamples = 32\nvalue = [2, 30]"] ;
90 -> 108 ;
109 [label="gini = 0.0\nsamples = 23\nvalue = [0, 23]"] ;
108 -> 109 ;
110 [label="X[37] <= 0.5\ngini = 0.3457\nsamples = 9\nvalue = [2, 7]"] ;
108 -> 110 ;
111 [label="gini = 0.0\nsamples = 1\nvalue = [1, 0]"] ;
110 -> 111 ;
112 [label="X[41] <= 4.5\ngini = 0.2188\nsamples = 8\nvalue = [1, 7]"] ;
110 -> 112 ;
113 [label="gini = 0.0\nsamples = 7\nvalue = [0, 7]"] ;
112 -> 113 ;
114 [label="gini = 0.0\nsamples = 1\nvalue = [1, 0]"] ;
112 -> 114 ;
115 [label="X[4] <= 18.5\ngini = 0.5\nsamples = 24\nvalue = [12, 12]"] ;
79 -> 115 ;
116 [label="X[15] <= 0.5\ngini = 0.48\nsamples = 20\nvalue = [12, 8]"] ;
115 -> 116 ;
117 [label="X[33] <= 0.5\ngini = 0.4978\nsamples = 15\nvalue = [7, 8]"] ;
116 -> 117 ;
118 [label="X[35] <= 0.5\ngini = 0.4444\nsamples = 12\nvalue = [4, 8]"] ;
117 -> 118 ;
119 [label="gini = 0.0\nsamples = 6\nvalue = [0, 6]"] ;
118 -> 119 ;
120 [label="X[45] <= 3.5\ngini = 0.4444\nsamples = 6\nvalue = [4, 2]"] ;
118 -> 120 ;
121 [label="gini = 0.0\nsamples = 2\nvalue = [0, 2]"] ;
120 -> 121 ;
122 [label="gini = 0.0\nsamples = 4\nvalue = [4, 0]"] ;
120 -> 122 ;
123 [label="gini = 0.0\nsamples = 3\nvalue = [3, 0]"] ;
117 -> 123 ;
124 [label="gini = 0.0\nsamples = 5\nvalue = [5, 0]"] ;
116 -> 124 ;
125 [label="gini = 0.0\nsamples = 4\nvalue = [0, 4]"] ;
115 -> 125 ;
126 [label="X[31] <= 2.5\ngini = 0.3403\nsamples = 23\nvalue = [18, 5]"] ;
0 -> 126 [labeldistance=2.5, labelangle=-45, headlabel="False"] ;
127 [label="X[7] <= 0.5\ngini = 0.1884\nsamples = 19\nvalue = [17, 2]"] ;
126 -> 127 ;
128 [label="X[38] <= 0.5\ngini = 0.48\nsamples = 5\nvalue = [3, 2]"] ;
127 -> 128 ;
129 [label="gini = 0.0\nsamples = 3\nvalue = [3, 0]"] ;
128 -> 129 ;
130 [label="gini = 0.0\nsamples = 2\nvalue = [0, 2]"] ;
128 -> 130 ;
131 [label="gini = 0.0\nsamples = 14\nvalue = [14, 0]"] ;
127 -> 131 ;
132 [label="X[47] <= 2.0\ngini = 0.375\nsamples = 4\nvalue = [1, 3]"] ;
126 -> 132 ;
133 [label="gini = 0.0\nsamples = 1\nvalue = [1, 0]"] ;
132 -> 133 ;
134 [label="gini = 0.0\nsamples = 3\nvalue = [0, 3]"] ;
132 -> 134 ;
}